var nnDataTest = {
    "layers": [{
        "0": {},
        "1": {},
        "size": 2
    }, {
        "0": {
            "bias": 0.2516910361399061,
            "weights": {
                "0": 0.08963201341382158,
                "1": 0.10887622349027595
            }
        },
        "1": {
            "bias": 0.03413377393996702,
            "weights": {
                "0": -0.05262460726558035,
                "1": 0.06946362555488844
            }
        },
        "2": {
            "bias": -0.09843924334969703,
            "weights": {
                "0": 0.09165237933936987,
                "1": -0.15252214607104828
            }
        },
        "size": 3
    }, {
        "0": {
            "bias": -0.2920389074022604,
            "weights": {
                "0": -0.12078333167561067,
                "1": -0.33111991827240167,
                "2": -0.04286222805480925
            }
        },
        "1": {
            "bias": -0.18130253916484773,
            "weights": {
                "0": -0.2505912054368859,
                "1": -0.3460498012764203,
                "2": 0.022206631335778677
            }
        },
        "2": {
            "bias": -0.22914936771007235,
            "weights": {
                "0": -0.2928478846271226,
                "1": -0.2557469760970896,
                "2": -0.1847512821901725
            }
        },
        "3": {
            "bias": -0.29376915138733023,
            "weights": {
                "0": -0.3299063077121482,
                "1": -0.026950316532525827,
                "2": -0.29895880827740157
            }
        },
        "4": {
            "bias": -0.4392156850224326,
            "weights": {
                "0": -0.23063639280556952,
                "1": -0.3194237041382927,
                "2": -0.01193396397953763
            }
        },
        "size": 5
    }, {
        "0": {
            "bias": -0.05210653089688727,
            "weights": {
                "0": 0.16462343542866475,
                "1": 0.10392408170561185,
                "2": -0.0912417296054366,
                "3": -0.005802690377122565,
                "4": -0.03792028347194784
            }
        },
        "size": 1
    }]
}
